/*!
 * The following copyright notice may not be removed under any circumstances.
 * 
 * Copyright:
 * Typeface © (your company). 2005. All Rights Reserved
 * 
 * Description:
 * This font was created using Font Creator 5.0 from High-Logic.com
 */
Cufon.registerFont({"w":7,"face":{"font-family":"Missed Your Exit","font-weight":400,"font-stretch":"normal","units-per-em":"360","panose-1":"2 0 0 0 0 0 0 0 0 0","ascent":"288","descent":"-72","bbox":"-3.07715 -485.111 562.097 192","underline-thickness":"26.3672","underline-position":"-24.9609","unicode-range":"U+0020-U+007E"},"glyphs":{" ":{"w":140},"\u00a0":{"w":140},"!":{"d":"93,-331v13,-36,42,-19,59,3v0,8,-24,71,-73,191v1,20,37,-13,33,20v-37,34,-73,23,-73,-37v0,-23,20,-81,54,-177xm37,-81v15,0,25,12,25,34v0,32,-18,48,-40,48v-43,-14,-9,-88,15,-82","w":158},"\"":{"d":"0,-287v7,-24,15,-34,37,-34v20,0,30,16,33,48v-8,36,-24,54,-48,54v-8,-11,-8,-20,12,-26r0,-5v-19,0,-30,-13,-34,-37xm104,-281v0,-27,10,-40,34,-40v19,0,34,16,34,43v0,38,-19,56,-43,56v-4,8,-8,-2,-11,-6v1,-13,14,-14,20,-22v-22,-2,-34,-13,-34,-31","w":178},"#":{"d":"141,-303v9,1,18,-3,17,8r-9,65v12,-5,58,-16,53,11v0,6,-18,13,-56,20v0,14,0,27,-3,37v19,1,69,-16,65,14v0,6,-21,11,-62,14v-3,17,7,39,0,50v-15,2,-11,-12,-17,-45r-47,12r14,67v-18,11,-18,-13,-34,-59v-16,2,-37,21,-48,8r39,-28r-5,-25r-42,17r-6,-6v1,-4,15,-14,42,-33v-4,-33,-5,-115,28,-82r0,59v32,-11,48,-22,48,-34v0,-29,8,-52,23,-70xm73,-171v0,56,26,17,48,11v0,-11,-2,-19,-3,-28","w":215},"$":{"d":"129,-359v6,-4,10,-11,23,-9v4,7,15,8,14,20v-13,34,-20,54,-20,62v27,10,38,37,17,53v-16,2,-24,-4,-31,-11r-8,56v80,39,103,132,11,163r-34,3v-2,17,7,45,-14,42v-12,-2,-11,-25,-11,-42r-48,-19v-19,-14,-28,-28,-28,-40v0,-11,7,-20,22,-20v16,0,25,10,26,29r25,11r6,-104v-40,-21,-59,-48,-59,-85v0,-32,33,-50,84,-50v3,0,11,-20,25,-59xm96,-269v-48,-10,-53,37,-12,56r3,0xm115,-137r-11,87v55,2,55,-62,14,-87r-3,0","w":201},"%":{},"&":{"d":"146,-356v40,0,71,28,71,84v0,17,-15,38,-45,62r-6,0r67,53r0,-36v6,-13,27,-16,34,0v-1,20,3,43,-3,59v109,66,170,98,183,98v8,0,16,-8,23,-25v14,-6,29,0,28,17v0,21,-17,35,-51,42v-37,-7,-100,-39,-188,-96r-6,0v-46,119,-212,142,-253,9v-3,-57,32,-80,107,-127v-22,-28,-34,-50,-34,-67v0,-49,29,-73,73,-73xm107,-289v0,12,12,31,36,56v33,-19,49,-32,48,-53v-2,-64,-81,-64,-84,-3xm48,-106v30,94,153,77,177,-14v-36,-24,-66,-49,-90,-71v-58,28,-87,56,-87,85","w":504},"'":{"d":"0,-281v0,-27,10,-40,34,-40v19,0,34,16,34,43v0,38,-19,56,-43,56v-4,7,-8,-2,-11,-6v1,-13,14,-14,20,-22v-22,-2,-34,-13,-34,-31","w":74},"(":{},")":{},"*":{},"+":{},",":{"d":"0,-30v0,-27,10,-40,34,-40v19,0,34,16,34,43v0,38,-19,56,-43,56v-4,7,-8,-2,-11,-6v1,-13,14,-14,20,-22v-22,-2,-34,-13,-34,-31","w":74},"-":{"d":"62,-219r121,26v4,-6,20,-3,17,8v-46,21,-132,-6,-192,9r-8,-15v10,-17,30,-27,62,-28","w":206},"\u00ad":{"d":"62,-219r121,26v4,-6,20,-3,17,8v-46,21,-132,-6,-192,9r-8,-15v10,-17,30,-27,62,-28","w":206},".":{"d":"39,-82v15,0,26,15,31,43v-4,29,-13,39,-39,39v-16,0,-26,-13,-31,-39v5,-28,18,-43,39,-43","w":77},"\/":{"d":"187,-319v-8,-18,18,-35,31,-21v11,19,-8,33,-15,49v-24,64,-74,105,-101,163r-60,127r-33,1v-4,-7,-7,-13,-9,-21r75,-155r52,-77","w":224},"0":{"d":"110,-346v95,-31,152,50,152,149v0,75,-29,139,-93,180v-87,56,-169,-18,-169,-138v0,-84,37,-148,110,-191xm53,-183v-14,65,7,163,54,155v48,9,104,-99,104,-194v0,-63,-16,-101,-62,-101v-38,0,-76,45,-96,140","w":268},"1":{"d":"79,-349r5,6r0,337v-4,11,-25,5,-39,6r-3,-281v-9,6,-33,13,-42,3v0,-4,5,-6,14,-6v12,0,34,-22,65,-65","w":91},"2":{"d":"93,-354v53,7,80,30,79,76v0,52,-40,107,-113,171v-23,21,-34,46,-39,68v30,-9,51,-20,87,-17r48,17v17,-8,26,-13,19,-31v14,-12,34,4,34,19v0,29,-20,46,-59,51r-59,-14v-40,-1,-56,9,-76,14v-13,-7,-14,-16,-14,-34v0,-60,38,-123,115,-191v17,-27,26,-50,26,-70v0,-45,-69,-38,-88,-14v5,15,2,31,-14,33v-17,-3,-25,-11,-25,-25v0,-28,27,-45,79,-53","w":215},"3":{"d":"132,-354v82,0,83,83,26,129v126,61,78,225,-57,225v-48,0,-84,-21,-101,-68v4,-2,5,-8,11,-8v27,13,50,34,87,34v41,0,71,-23,90,-70v4,-56,-18,-72,-76,-110r0,-9v38,-26,57,-46,57,-61v-1,-47,-60,-44,-85,-23v5,13,1,32,-14,31v-13,-5,-20,-13,-17,-28v5,-28,34,-42,79,-42","w":237},"4":{"d":"42,-354v28,6,42,49,42,104v0,52,-15,100,-47,143r123,0r0,-79v0,-4,12,-10,34,-19r3,3r0,95v20,1,51,-7,45,20v-3,12,-33,9,-45,5r-3,82v-13,-1,-30,3,-34,-6r0,-76r-2,3r-119,0v-26,0,-39,-3,-39,-11v32,-50,48,-99,48,-149r-23,-107v2,-6,8,-8,17,-8","w":248},"5":{"d":"180,-366v18,-1,33,8,31,31v-3,44,-104,45,-149,17v6,12,3,48,8,70v8,-6,25,-9,51,-11v84,17,127,58,127,121v0,60,-40,105,-119,135v-59,9,-107,-5,-129,-50v4,-5,5,-14,17,-12v68,64,169,17,180,-84v5,-50,-98,-106,-144,-53v-15,-1,-17,-11,-14,-26r-5,-121r11,-5v60,20,94,31,135,-12","w":254},"6":{"d":"141,-354v10,-4,18,-3,22,5v-67,58,-95,97,-110,155v42,-29,56,-45,99,-37v74,13,101,48,101,113v0,51,-31,89,-93,115v-97,10,-160,-39,-160,-121v0,-93,47,-169,141,-230xm42,-141v-3,68,32,112,96,119v42,5,74,-41,70,-105v-3,-41,-31,-62,-76,-59v-60,4,-90,21,-90,45","w":260},"7":{"d":"87,-357r110,22r62,-11r5,8v-99,90,-149,152,-149,183v-14,37,-7,83,17,147v-4,4,-7,10,-17,8v-98,-102,-53,-217,71,-292r0,-3v-61,-11,-117,-37,-180,-9r-6,-8v33,-30,62,-45,87,-45","w":271},"8":{"d":"121,-354v62,-5,104,81,59,132v101,67,66,218,-65,222v-55,1,-115,-42,-115,-118v0,-43,21,-77,62,-101v-41,-48,-24,-128,59,-135xm73,-290v0,20,22,39,62,48v22,-13,34,-29,34,-50v-10,-31,-22,-47,-51,-43v-30,4,-45,20,-45,45xm34,-110v0,43,30,84,81,85v49,1,76,-32,76,-90v0,-33,-30,-61,-90,-82v-47,26,-74,50,-64,85","w":246},"9":{"d":"0,-231v0,-51,54,-123,118,-123v77,0,135,38,135,121v0,95,-47,172,-141,230v-9,3,-20,5,-19,-8v54,-38,89,-88,107,-149v-35,24,-64,36,-85,36v-78,0,-115,-48,-115,-107xm45,-242v0,49,25,73,76,73v65,-14,94,-16,90,-53v-8,-73,-38,-107,-99,-107v-36,0,-67,28,-67,87","w":260},":":{"d":"39,-275v15,0,26,14,31,42v-4,29,-13,40,-39,40v-16,0,-26,-14,-31,-40v5,-28,18,-42,39,-42xm41,-155v15,0,26,14,31,42v-4,29,-13,39,-39,39v-16,0,-26,-13,-31,-39v5,-28,18,-42,39,-42","w":77},";":{"d":"39,-275v15,0,26,14,31,42v-4,29,-13,40,-39,40v-16,0,-26,-14,-31,-40v5,-28,18,-42,39,-42xm0,-131v5,-26,14,-37,37,-37v19,0,32,18,33,48v-7,36,-23,53,-48,53v-14,-11,9,-19,12,-31v-22,-4,-34,-15,-34,-33","w":77},"\u037e":{"d":"39,-275v15,0,26,14,31,42v-4,29,-13,40,-39,40v-16,0,-26,-14,-31,-40v5,-28,18,-42,39,-42xm0,-131v5,-26,14,-37,37,-37v19,0,32,18,33,48v-7,36,-23,53,-48,53v-14,-11,9,-19,12,-31v-22,-4,-34,-15,-34,-33","w":77},"<":{},"=":{},">":{},"?":{"d":"127,-351v58,0,97,29,118,87v5,73,-18,95,-90,130v-11,0,-17,10,-17,31v-26,15,-30,-2,-31,-54v8,-8,21,-13,42,-19v79,-47,65,-114,-34,-130v-73,9,-93,40,-73,96v-3,9,-10,14,-20,14v-11,0,-18,-18,-22,-56v14,-66,57,-99,127,-99xm127,-75v30,8,35,67,5,81v-27,1,-39,-13,-39,-36v0,-30,14,-45,34,-45","w":251},"@":{"d":"194,-16v-109,18,-194,-54,-194,-172v0,-78,41,-140,129,-163v116,-31,204,45,211,169v4,67,-32,99,-98,98v-16,0,-25,-11,-28,-33v-50,50,-132,34,-132,-51v0,-54,22,-91,67,-110v26,-1,39,2,62,14v0,-9,3,-17,8,-17v42,6,20,117,23,166v29,8,67,-8,67,-36v20,-87,-21,-144,-109,-175v-92,-11,-142,27,-172,116v-6,89,20,125,101,163v51,11,90,6,130,-25v13,-1,19,-1,19,14v0,14,-27,33,-84,42xm180,-252v-37,0,-57,34,-59,90v0,25,13,40,37,47v38,0,56,-30,56,-92v0,-30,-16,-45,-34,-45","w":347},"A":{"d":"222,-231v27,-79,98,-169,208,-166v10,0,17,3,20,11v-39,90,-59,141,-59,152v28,8,39,14,25,31v-13,0,-22,-4,-34,-6v-12,79,10,186,65,180v48,-5,68,-29,68,-70v0,-38,-44,-59,-73,-34v-13,0,-19,-5,-20,-17v0,-8,14,-14,42,-22v53,-4,63,11,90,64v13,69,-24,108,-104,119v-74,10,-110,-113,-96,-220v-67,9,-108,20,-106,28v0,38,-33,90,-105,141v-39,28,-76,36,-101,36v-35,0,-54,-19,-31,-30v76,10,114,-31,180,-113r17,-37v-61,-7,-100,-19,-70,-45v22,1,41,9,62,9v15,0,22,-3,22,-11xm290,-293v-13,26,-29,50,-26,62v30,-5,59,-11,96,-9v3,0,16,-32,37,-93v7,-8,9,-21,14,-31v-37,-1,-71,23,-121,71","w":563},"B":{"d":"349,-428v4,4,12,4,11,14v-22,18,-49,30,-68,50v41,0,87,15,138,45v35,37,31,79,-19,99v0,3,14,8,42,14v48,33,62,50,62,104v0,73,-75,129,-186,129v-62,0,-93,-18,-93,-56v-1,-58,64,-102,183,-118v2,4,6,5,6,11v0,5,-27,14,-79,26v-51,24,-76,46,-76,67v0,23,22,37,65,42v4,-6,19,-3,28,-3v49,0,84,-22,107,-67v17,-73,-18,-121,-96,-118v-9,-3,-19,-3,-28,0v-6,-5,-13,-7,-11,-20v31,-14,69,-31,76,-65v0,-32,-47,-54,-141,-67v-41,50,-31,113,-31,191v0,50,-25,102,-84,141v-48,31,-90,42,-116,48v-3,-5,-6,-11,-5,-20v9,-8,34,-15,70,-34v43,-22,69,-56,82,-90r28,-166r28,-70v-90,-1,-158,33,-197,107v-21,39,-6,86,53,79v41,-5,50,-22,43,-57v16,-15,31,-1,31,26v0,33,-30,53,-68,53v-52,0,-87,-18,-104,-56v-4,-62,21,-83,90,-138v39,-31,99,-42,172,-42r2,3v23,-26,52,-47,85,-62","w":521},"C":{"d":"124,-378v49,-22,132,-12,143,34v34,-25,50,-45,71,-31r0,9v-31,25,-63,66,-99,121v-4,7,-25,9,-22,-6v21,-27,31,-52,31,-73v0,-27,-33,-31,-68,-31v-60,0,-112,45,-135,141v-19,83,17,145,82,177v79,12,128,-13,194,-65v9,0,12,4,11,14v-108,113,-272,135,-324,-25v-37,-116,23,-222,116,-265","w":344},"D":{"d":"172,-386v122,-23,203,20,272,118v75,107,25,264,-121,264v-44,0,-101,-20,-171,-59v-16,-1,-51,-14,-51,6v0,20,10,33,31,37v5,18,-15,19,-39,19v-21,0,-33,-14,-37,-42v-6,-50,75,-61,118,-39v17,-51,32,-148,23,-237r3,0v-7,-5,-1,-23,-3,-33v-74,0,-126,25,-155,76v-9,32,10,62,37,62v25,0,41,-15,50,-45v0,-6,5,-12,14,-15v11,0,18,8,20,23v-8,83,-156,93,-163,8v-6,-74,53,-120,172,-143xm197,-68v118,45,242,38,242,-99v0,-72,-52,-130,-155,-174r-51,-11v1,99,-6,214,-36,284","w":482},"E":{"d":"307,-144v4,66,-81,155,-166,146v-94,-10,-141,-54,-141,-121v0,-46,24,-77,73,-95r0,-3v-81,-73,-16,-166,96,-175v90,15,127,69,56,113v-9,1,-12,-4,-11,-14v13,-15,19,-27,8,-40v-22,13,-39,22,-42,40v-4,26,28,39,62,53v2,20,-3,18,-31,20v-83,-19,-80,-89,-9,-127v-66,-21,-124,-2,-143,57v0,25,20,51,59,76v2,15,-14,9,-48,22v-31,12,-45,37,-45,68v23,58,61,87,113,87v72,0,121,-36,149,-107v0,-17,16,-6,20,0","w":313},"F":{"d":"146,-403v58,-16,113,14,169,14v16,0,41,-16,48,0v-9,43,-86,24,-127,20v-29,38,-29,70,-28,126v28,-5,53,1,68,20v0,18,-18,13,-31,9r-34,8v7,114,-29,153,-132,214v-29,10,-45,12,-71,11v-3,-4,-9,-5,-8,-14r68,-28v71,-37,106,-93,106,-166v-21,7,-35,8,-56,8v-31,0,-43,-10,-28,-25v10,0,17,2,25,3v41,-11,62,-22,62,-34v0,-52,13,-97,37,-135v-84,-2,-141,25,-166,98v11,32,57,33,67,-2v-2,-13,-18,-31,-3,-37v31,1,34,20,34,48v0,21,-21,34,-62,39v-48,-6,-62,-23,-62,-67v0,-47,41,-87,124,-110","w":369},"G":{"d":"53,-349v31,-57,87,-119,180,-119v29,0,51,20,51,59v0,64,-38,101,-115,96r-90,-6v-30,66,-42,192,62,192v64,0,96,-64,101,-132v-6,-9,3,-29,0,-45v4,-3,5,-9,14,-9v9,0,14,53,14,158r0,28v7,-2,25,-20,56,-54v8,-1,12,2,14,6v0,15,-23,44,-70,87v0,72,-22,126,-65,163v-13,6,-31,9,-53,11v-57,-14,-82,-26,-82,-64v0,-39,49,-78,147,-116v25,-10,30,-22,28,-50v-28,38,-67,56,-118,56v-98,0,-134,-147,-85,-245v-33,-4,-54,-9,-36,-28xm93,-347r0,3v69,14,160,3,160,-62v0,-26,-9,-39,-28,-39v-36,0,-80,32,-132,98xm236,-68v-90,42,-132,63,-132,98v0,18,16,34,45,34v40,0,69,-44,87,-132","w":347},"H":{"d":"202,-370v17,-26,18,-41,34,-22v-20,49,-21,104,-17,166v28,-2,61,1,85,-6v3,7,14,-4,17,3v9,-58,27,-104,53,-138v8,-1,11,2,14,6v-24,59,-36,102,-36,129v16,3,45,-9,42,14v0,6,-13,8,-37,8v-9,-2,-4,9,-5,15v0,73,11,123,36,149v15,16,31,4,48,0v16,17,5,28,-25,39v-51,4,-61,-30,-93,-107v-3,-28,-3,-59,-3,-90r-96,14v1,88,-35,143,-112,177v-45,21,-115,8,-107,-59v-7,-62,81,-123,180,-149v0,-36,2,-67,8,-93v-9,8,-30,12,-64,12v-19,5,-12,21,-28,25r-12,-11v10,-26,25,-40,45,-40v32,-8,59,-21,73,-42xm37,-89v-16,26,-10,65,33,65v32,0,65,-37,99,-110r8,-47v-71,21,-115,53,-140,92","w":451},"I":{"d":"84,-404v85,-7,116,38,116,147v0,102,-44,183,-130,242v-29,8,-50,19,-62,11v-2,-23,2,-19,31,-26v72,-33,109,-114,116,-222v-1,-4,-5,-9,0,-11v0,-27,-8,-65,-23,-115v-56,-3,-79,22,-104,81v-1,27,9,42,31,42v13,0,20,-5,20,-16v-13,-11,-48,-40,-3,-40v17,0,28,13,31,37v-11,33,-23,42,-56,42v-29,0,-51,-27,-51,-73v0,-46,28,-80,84,-99","w":206},"J":{"d":"321,-485v8,-1,9,5,14,8v0,6,-13,37,-37,93v-13,32,-15,117,-14,180r76,-6v2,4,6,6,6,12v0,6,-28,12,-82,19v1,122,-40,211,-132,248v-66,26,-152,9,-152,-79v0,-48,43,-100,127,-155v38,-15,78,-26,121,-36v0,-71,8,-133,25,-186v-58,4,-87,14,-87,28v-5,10,-17,11,-23,0v0,-28,32,-47,96,-59v25,-15,46,-37,62,-67xm112,-117v-67,50,-90,82,-90,127v0,23,18,42,54,42v49,0,103,-41,149,-127v19,-34,23,-67,23,-95v-42,4,-88,16,-136,53","w":372},"K":{"d":"82,-7v50,1,103,-91,95,-174r-45,5v-2,-4,-5,-5,-5,-11v0,-5,16,-12,50,-20r-3,-112v1,-1,5,-4,0,-3r-118,39v-42,28,-37,26,12,48v2,10,-4,13,-9,17v-43,-9,-59,-16,-59,-45v0,-32,55,-59,163,-90v23,-7,42,-27,59,-51v32,11,3,36,-22,68r14,110v19,1,30,-16,59,-51v7,-9,18,-39,36,-90v25,-40,39,-54,82,-51v7,5,10,15,3,23v-48,-13,-76,27,-76,107v0,21,-22,47,-65,81v38,0,76,44,113,132v15,22,28,37,39,43v19,-7,29,-24,56,-23v6,2,9,8,9,17v0,22,-19,37,-57,45v-36,0,-77,-46,-121,-138v-27,-32,-51,-48,-75,-48v0,60,-29,119,-85,175v-40,23,-86,31,-93,-28v4,-38,20,-57,48,-57v5,2,3,11,3,17v-22,29,-33,45,-8,65","w":476},"L":{"d":"236,-243v36,-91,77,-148,166,-169v17,0,28,13,34,37v2,58,-83,180,-180,202r-25,98v103,65,153,58,253,-8v10,-1,15,3,14,14v-87,90,-183,101,-281,17v-32,40,-66,63,-124,56v-66,-7,-93,-25,-93,-70v0,-29,31,-48,93,-59v38,4,71,12,98,25r23,-65v-82,-7,-124,-34,-124,-81v0,-33,12,-56,28,-37v-19,53,13,82,87,82v21,0,31,-14,31,-42xm264,-215v82,-29,131,-82,149,-163v0,-5,-5,-10,-14,-14v-77,33,-111,68,-135,177xm22,-63v10,29,28,41,62,39v33,-1,70,-16,93,-56v-62,-17,-127,-36,-155,17","w":504},"M":{"d":"236,-406v-2,-20,16,-34,26,-20v-11,73,17,129,64,222v-2,6,4,14,6,6v0,-68,31,-140,93,-217v8,0,16,-1,14,9v-21,104,-8,174,36,292v10,28,38,45,71,54v1,12,-5,16,-17,16v-100,0,-147,-167,-124,-298r-3,0r-64,228v-16,31,-28,57,-51,68v-3,-5,-10,-5,-9,-14v24,-33,24,-43,23,-85v0,-12,-18,-64,-56,-155r-3,0v0,36,-14,112,-65,217v-38,77,-90,110,-132,110v-20,-7,-43,-13,-45,-40v3,-2,5,-6,11,-5v16,15,24,20,40,19v66,0,127,-135,185,-407","w":552},"N":{"d":"498,-418v44,1,57,19,34,39v-33,-2,-55,7,-65,31v-16,23,-23,191,-42,264v26,38,52,57,78,57v56,-19,42,-56,0,-93v-4,-17,-3,-23,20,-26v62,16,47,152,-22,138v-68,0,-114,-58,-158,-166v-18,-44,-41,-88,-67,-126v12,152,-27,258,-130,332v-38,27,-74,36,-101,36v-35,0,-57,-23,-37,-42v27,0,36,14,65,14v33,0,76,-30,118,-96v39,-62,54,-149,54,-253v1,-32,-5,-46,-48,-53v-12,-18,12,-23,36,-23v48,0,106,91,172,273v12,-4,1,-34,8,-48v-1,-162,0,-239,85,-258","w":569},"O":{"d":"152,-2v-87,0,-152,-71,-152,-180v0,-102,42,-177,129,-222v12,-6,28,-10,26,11v-60,31,-114,127,-113,231v1,82,37,140,118,140v38,0,73,-22,107,-67v-69,-48,-104,-108,-104,-180v0,-81,27,-121,79,-121v48,0,98,146,98,188v0,29,-7,63,-22,104v9,5,9,17,0,23r-14,-3v-33,51,-83,76,-152,76xm194,-295v0,72,29,132,87,180r3,0v30,-81,25,-210,-31,-250v-42,-16,-59,3,-59,70","w":347},"P":{"d":"391,-320v0,72,-97,158,-205,149v2,103,-62,176,-175,197v-16,-25,11,-17,57,-45v78,-47,86,-115,73,-217v11,-75,16,-110,36,-109r11,11v-18,39,-8,91,-5,138v115,-20,169,-58,169,-138v0,-44,-54,-70,-119,-70v-99,0,-164,44,-194,132v-4,36,-3,57,31,70v5,0,15,-9,31,-28v4,0,7,8,11,23v-8,28,-21,42,-42,42v-40,0,-70,-27,-70,-79v0,-74,42,-138,132,-174v114,-46,259,-26,259,98","w":397},"Q":{"d":"158,-365v-64,1,-117,68,-121,163v-3,88,49,148,137,169v38,1,56,-1,79,-25v-20,-24,-43,-37,-70,-37v-1,-14,3,-20,19,-20v27,0,53,10,76,31v31,-37,46,-80,45,-135v0,-73,-36,-130,-109,-171v-2,-12,6,-14,11,-20v99,38,138,99,138,208v0,52,-18,101,-56,146v18,18,39,26,56,37v1,12,-7,17,-28,17v-21,0,-40,-9,-59,-28v-127,77,-276,-10,-276,-169v0,-89,39,-152,118,-188v77,-13,119,18,130,101v-21,10,-23,-2,-29,-40v-15,-26,-35,-39,-61,-39","w":369},"R":{"d":"158,-399v91,-14,196,-9,196,93v0,40,-29,79,-92,79v-17,0,-26,2,-26,6v43,119,80,174,149,174v23,0,32,-24,43,-51v10,-1,15,3,14,14v-5,51,-30,76,-76,76v-80,0,-132,-78,-155,-236v85,-24,108,-23,107,-79v8,-40,-68,-56,-130,-56v-82,0,-133,22,-132,96v0,28,18,50,56,67v2,-71,7,-119,43,-129v18,19,-3,34,-3,76r0,132v0,84,-27,126,-79,126v-49,0,-73,-21,-73,-64v11,-33,16,-48,34,-28v-2,35,4,44,31,67v54,11,51,-84,50,-149v-70,-25,-93,-37,-93,-93v0,-62,45,-107,136,-121","w":448},"S":{"d":"132,-399v36,-2,56,9,79,34v45,4,23,39,0,39v-15,0,-30,-14,-45,-42v-27,-26,-70,4,-70,37v0,26,54,63,163,112v36,33,45,47,45,90v0,42,-38,85,-121,110v-91,27,-183,-19,-183,-107v0,-50,39,-90,112,-90v54,0,82,33,82,82v-16,13,-16,0,-31,-28v-50,-46,-131,-12,-141,61v22,45,64,68,124,68v52,-1,96,-29,113,-93v0,-35,-45,-75,-135,-118v-39,-35,-56,-55,-56,-84v0,-32,21,-56,64,-71","w":310},"T":{"d":"90,-399v57,-17,135,29,222,37r51,-9r5,15v-41,36,-97,29,-157,11v-42,85,-15,188,-9,289v-5,34,-2,45,-22,45v-9,0,-20,-42,-28,-126v-8,-84,1,-146,36,-214r-70,-11v-64,10,-96,31,-96,62v20,53,32,37,82,3v9,0,12,4,14,11v0,22,-22,37,-67,45v-34,-10,-51,-31,-51,-62v0,-43,29,-78,90,-96","w":375},"U":{"d":"129,-103v-8,-46,55,-135,59,-206v-9,-57,-33,-85,-81,-84v-39,0,-64,17,-70,56v2,35,38,33,70,28v9,16,0,24,-28,26v-47,3,-81,-23,-79,-51v-6,-32,64,-82,121,-82v50,0,82,36,93,105v-4,41,-25,112,-42,202v6,43,27,65,64,65v52,0,87,-53,104,-158v14,-83,23,-130,28,-143v26,-3,23,18,23,73v0,48,-12,100,-34,157v-1,23,-14,69,9,74v5,2,26,-15,59,-29r5,12v-23,34,-46,50,-70,50v-26,0,-39,-20,-39,-59v-43,40,-72,56,-116,56v-43,0,-66,-30,-76,-92","w":437},"V":{"d":"309,-418v49,0,85,31,85,95v0,67,-39,148,-118,242r-28,42v10,1,15,4,14,12v-10,15,-25,22,-43,22r-11,-14v-8,0,-11,-2,-11,-8v35,-114,0,-195,-59,-301v-23,-26,-43,-40,-59,-40v-28,0,-48,17,-48,51v0,18,17,40,51,65v20,9,24,14,14,28v-113,-14,-133,-132,-26,-163v9,-3,17,-3,28,-3v70,0,125,65,155,199v7,30,2,59,-3,88v68,-106,104,-170,99,-242v-2,-32,-19,-48,-37,-48v-4,12,-18,30,-28,11v-1,-23,6,-37,25,-36","w":400},"W":{"d":"79,-421v124,0,170,135,140,270r3,0v37,-46,65,-69,99,-68v26,23,39,68,39,135v25,-31,56,-84,56,-160v0,-37,-17,-92,-53,-166v4,-8,11,-13,25,-11v38,18,56,59,56,126v0,99,-30,188,-90,265v-16,-1,-16,-8,-16,-23v0,-55,-7,-101,-20,-138v-66,51,-99,93,-138,189v-10,6,-25,-3,-25,-9v24,-80,36,-150,36,-208v0,-116,-35,-174,-104,-174v-48,0,-67,26,-67,65v0,68,55,62,95,31v10,-2,13,4,17,8v-14,39,-34,59,-62,59v-42,1,-70,-35,-70,-96v0,-65,36,-95,79,-95","w":451},"X":{"d":"436,-427v3,3,7,4,6,11v-78,46,-130,82,-164,195v18,50,68,113,150,188v35,16,41,15,75,11r6,14v-6,6,-20,14,-42,14v-62,0,-127,-51,-194,-154v-5,-17,-10,-26,-14,-26v-63,119,-115,175,-194,175v-37,0,-64,-31,-65,-85v14,-66,33,-92,84,-92v22,0,33,12,20,25r-28,-6v-29,9,-39,27,-39,59v0,32,20,55,59,57v55,3,109,-65,143,-189v-26,-92,-61,-138,-107,-138v-25,0,-42,19,-50,57v14,5,17,42,-9,36v-16,0,-26,-10,-28,-31v-3,-40,43,-84,110,-81v41,2,79,31,101,95v32,-76,116,-120,180,-135","w":516},"Y":{"d":"0,-356v8,-46,25,-62,68,-62v49,0,105,39,95,104r-22,140v4,101,90,98,171,68v-7,-115,-12,-244,42,-310v10,-1,11,6,17,9v-14,48,-28,124,-19,194v-3,30,-1,92,2,129v12,-8,31,-28,59,-59v9,0,11,5,12,14v-9,19,-33,47,-73,85v-1,5,-5,11,0,14v0,74,-24,136,-71,183v-34,18,-50,23,-84,22v-53,-15,-76,-37,-76,-81v0,-53,66,-101,174,-141v16,-6,23,-22,17,-34v-66,22,-86,31,-140,31v-40,0,-66,-39,-68,-107v0,-14,9,-64,28,-154v-7,-80,-71,-122,-104,-54v0,10,14,21,42,31v7,17,-11,25,-31,25v-21,0,-33,-15,-39,-47xm166,88v0,27,21,39,48,39v56,3,94,-50,101,-126v-6,-5,2,-14,0,-23v-99,41,-149,78,-149,110","w":431},"Z":{"d":"25,-354v43,-38,72,-57,124,-50r166,22v20,0,42,-6,65,-19v5,4,13,5,11,16v-96,62,-157,187,-228,282v119,33,123,42,183,42v37,0,76,-15,115,-45v10,0,18,-1,17,11v-84,122,-205,81,-337,11v0,13,-30,31,-90,51v-31,1,-54,-10,-51,-34v-7,-41,74,-56,132,-48v68,-112,106,-173,172,-236v-92,-3,-198,-46,-265,9v-9,1,-15,-2,-14,-12xm28,-50v28,1,51,-13,82,-42v-34,-18,-88,13,-82,42","w":485},"[":{},"\\":{},"]":{},"^":{},"_":{},"`":{},"a":{"d":"73,-221v28,-12,63,7,76,14v0,-13,3,-20,9,-20v57,0,19,134,30,194v17,-1,17,-19,31,-23r12,12v-18,30,-27,44,-51,42v-17,-9,-25,-21,-25,-34v-30,18,-41,31,-71,31v-46,0,-84,-40,-84,-101v0,-56,24,-93,73,-115xm42,-98v5,43,21,65,48,65v36,0,65,-54,65,-104v0,-39,-20,-59,-48,-59v-33,0,-55,32,-65,98","w":237},"b":{"d":"79,-210v67,-42,144,15,140,107v-5,102,-87,130,-149,70v-17,55,-41,29,-70,-11v0,-9,4,-12,11,-14v16,15,27,25,28,5v9,-128,-1,-262,-2,-393v6,-10,30,-18,42,-6v-8,72,0,161,0,242xm110,-196v-33,10,-30,9,-31,39r-3,85v17,26,37,39,59,39v28,-8,42,-30,42,-65v0,-53,-22,-86,-67,-98","w":226},"c":{"d":"79,-224v19,-1,32,5,48,8v13,-10,40,-11,45,0v1,9,-5,8,-17,14v9,11,-4,34,-17,31v-8,0,-17,-8,-26,-25v-43,-14,-67,24,-67,84v0,85,77,108,107,37v-8,-9,1,-29,17,-26v10,6,15,14,14,26v-20,50,-48,79,-90,73v-63,-8,-93,-51,-93,-115v0,-58,27,-94,79,-107","w":189},"d":{"d":"143,-444v-1,-24,32,-14,40,-2r-3,104r0,284v4,43,27,-17,39,8v0,15,-17,38,-50,48v-4,0,-12,-10,-23,-31v-57,63,-146,26,-146,-76v0,-97,70,-138,143,-101v-5,-74,1,-157,0,-234xm42,-95v0,37,17,62,51,62v15,0,31,-13,50,-39r-2,-107v-9,-11,-19,-17,-31,-17v-45,12,-68,46,-68,101","w":226},"e":{"d":"0,-16v-2,-9,23,-25,53,-42v-25,-77,-11,-166,74,-166v38,0,60,12,67,33v0,23,-31,66,-93,127v27,47,69,39,96,-11v12,5,19,11,22,17v-36,66,-106,77,-149,19v-40,21,-55,42,-70,23xm166,-188v-50,-37,-82,21,-79,90r6,0v42,-41,66,-71,73,-90","w":226},"f":{"d":"82,-331v18,-1,28,7,28,22v-51,96,-76,185,-76,265v31,-24,74,-44,129,-59v12,-7,20,-18,34,-23r8,9v-5,29,-76,60,-137,87r61,36v32,38,48,68,45,110v-4,51,-26,76,-64,76v-75,0,-110,-119,-110,-225v0,-116,28,-216,82,-298xm34,-13v17,115,27,171,76,171v19,0,33,-14,33,-42v0,-56,-36,-99,-109,-129","w":212},"g":{"d":"143,-202v1,-18,-5,-41,17,-36v28,6,23,55,23,87v0,40,2,83,-3,118r3,14v8,-5,20,-17,28,-6r0,6v-14,13,-24,20,-28,20v-2,22,4,53,-3,70r3,3v-13,83,-14,118,-48,118v-28,0,-48,-27,-48,-76v0,-36,18,-73,56,-110r0,-47v-28,26,-41,41,-70,36v-57,-11,-80,-50,-73,-115v10,-100,82,-142,143,-82xm101,-199v-36,0,-55,35,-62,101v4,43,19,65,43,65v41,-16,61,-48,61,-98v0,-45,-18,-68,-42,-68xm141,43v-25,45,-25,62,-12,112r6,0v4,-32,14,-76,6,-112","w":217},"h":{"d":"65,-441v42,-6,55,31,56,85v0,29,-18,64,-56,104r0,59r3,0v42,-48,103,-45,109,39v3,39,-8,85,-3,121v13,-4,18,-16,28,-23v4,5,13,5,12,15v-33,55,-68,54,-82,-20r6,-54v-6,-2,0,-9,0,-14v-2,-41,-3,-63,-26,-64v-11,6,-26,19,-47,42r3,3r0,126v0,13,-7,20,-20,20v-13,0,-20,-7,-20,-20r0,-208v-13,8,-20,14,-28,9v0,-20,20,-22,28,-34v-2,-75,4,-168,37,-186xm76,-404v-9,18,-15,72,-8,107v-2,1,-4,2,0,2v15,-18,22,-37,22,-59v0,-34,-8,-50,-14,-50","w":220},"i":{"d":"0,-286v-2,-25,7,-45,37,-42v29,18,28,69,-6,81v-17,0,-29,-13,-31,-39xm20,-227v28,-3,31,34,31,70v0,40,-7,88,0,124v16,-2,16,-20,31,-23r11,12v-15,28,-30,42,-45,42v-30,0,-43,-61,-42,-152v1,-49,6,-73,14,-73","w":99},"j":{"d":"39,-303v0,-27,10,-41,31,-39v19,2,28,17,28,42v0,26,-14,39,-30,39v-15,0,-29,-14,-29,-42xm68,-241v19,4,28,14,28,28r0,194v13,-8,21,-15,28,-8v-1,19,-20,21,-28,33r0,54v-4,85,-6,127,-54,132v-28,-13,-42,-37,-42,-73v0,-36,18,-73,56,-110v2,-61,-5,-130,3,-185v-3,-8,-3,-19,-3,-31v-14,3,-17,16,-31,19v-4,0,-5,-2,-5,-8v15,-30,31,-45,48,-45xm34,108v0,32,8,47,14,47v8,-11,11,-48,11,-112v-17,18,-25,40,-25,65","w":130},"k":{"d":"79,-455v39,9,50,47,50,96v0,44,-20,85,-61,126v1,7,-3,20,2,23v47,-33,80,-49,113,-48v16,0,31,12,31,34v0,28,-29,50,-85,67r0,3v21,18,45,56,73,113v23,25,38,19,65,11v12,14,4,22,-25,25v-55,5,-66,-24,-115,-90v-20,-18,-37,-40,-59,-56r0,138v0,5,-7,8,-20,11v-13,0,-20,-17,-20,-51r0,-140v4,-2,3,-10,-3,-9v-8,7,-19,12,-25,0r31,-28v-4,-78,-20,-206,48,-225xm76,-418v-7,26,-12,104,-6,146v35,-65,44,-94,9,-146r-3,0xm70,-188r14,3v68,-11,102,-26,102,-45v-36,-17,-73,10,-116,42","w":279},"l":{"d":"98,-452v23,-1,30,46,37,146v6,78,-6,127,-31,214v31,70,23,86,73,45v4,4,12,4,11,14v-39,47,-68,40,-106,-14v-33,32,-58,59,-82,36v31,-16,55,-40,68,-75v-42,-113,-28,-273,30,-366xm79,-216v0,49,2,71,14,70v16,-88,17,-140,11,-225v-10,13,-25,65,-25,155","w":195},"m":{"d":"0,-182v0,-18,17,-41,51,-45v17,11,25,21,25,31v39,-38,73,-47,96,5v30,-23,39,-37,76,-33v56,28,30,118,30,188r3,3v12,-8,27,-34,40,-14v-9,22,-21,42,-51,42v-13,0,-23,-20,-31,-59v6,-36,10,-129,-14,-132v-68,26,-40,108,-48,185v-9,11,-36,8,-36,-14r0,-137v0,-21,-7,-31,-20,-31v-26,9,-39,20,-39,31v0,107,-5,160,-14,160v-15,-5,-24,-10,-26,-17r0,-177v-22,-1,-25,34,-42,14","w":327},"n":{"d":"0,-191v23,-46,64,-51,76,3v42,-51,115,-56,115,28v0,37,0,79,-5,113v2,4,-1,14,5,14v10,-8,23,-33,37,-17r0,9v-17,24,-31,36,-42,36v-46,2,-34,-98,-37,-152v-1,-26,-11,-39,-20,-39v-20,10,-35,25,-47,45r-3,143v-17,14,-35,0,-37,-28v-3,-53,4,-112,-3,-160r-5,0v-19,17,-25,30,-34,14r0,-9","w":234},"o":{"d":"3,-75v-20,-83,33,-149,98,-149v48,0,79,41,79,112v0,124,-149,155,-177,37xm42,-98v0,47,16,68,51,65v46,-17,62,-50,62,-107v0,-29,-15,-48,-45,-56v-45,13,-68,45,-68,98","w":187},"p":{"d":"51,-227v13,7,19,17,19,31v61,-63,152,-11,152,73v0,24,-8,51,-25,79v21,-1,27,-19,48,-23v2,3,6,5,5,11v-42,45,-112,69,-171,37r0,113v0,32,-3,47,-11,47v-15,0,-25,-5,-29,-14r3,-267v-1,-10,-4,-20,0,-28v-6,-33,-18,-13,-31,-3v-4,-4,-12,-4,-11,-14v20,-28,37,-42,51,-42xm76,-151r3,3r0,95v9,13,19,20,33,20v44,-15,66,-47,65,-101v0,-41,-16,-62,-48,-62v-18,0,-36,15,-53,45","w":257},"q":{"d":"84,-227v24,-1,37,4,57,17v0,-16,4,-17,17,-17v14,0,23,3,25,11r-6,273v2,5,-1,16,9,14r22,-20v3,5,10,5,9,14v-15,19,-24,43,-54,45v-13,0,-20,-33,-22,-101r0,-36v-66,59,-140,9,-141,-88v0,-56,28,-93,84,-112xm107,-207v-46,16,-70,53,-68,112v3,89,78,91,102,23r0,-116v-9,-13,-20,-19,-34,-19","w":223},"r":{"d":"129,-230v49,0,63,48,31,73v-20,1,-15,-2,-31,-22v-13,-8,-24,7,-47,25v4,38,11,151,-12,152v-17,-6,-25,-15,-25,-28r0,-107r-3,-48v-18,1,-16,22,-34,23v-5,0,-7,-4,-8,-12v26,-49,53,-57,79,-11v18,-30,35,-45,50,-45","w":184},"s":{"d":"34,-127v-40,-45,-21,-104,50,-95v40,5,57,16,54,45v-11,15,-34,9,-40,-14v-16,-4,-52,-14,-45,14v5,8,32,29,82,67v13,20,18,36,17,62v-8,31,-33,49,-73,45v-52,-5,-79,-23,-79,-48v11,-22,34,-17,42,12v23,9,60,20,70,-9v0,-15,-26,-41,-78,-79","w":158},"t":{"d":"51,-323v3,-13,39,-11,39,2v0,33,3,71,-3,99v21,3,66,-10,65,14v0,10,-22,16,-65,17v1,43,-3,91,3,129r-3,0v4,6,1,20,11,20r20,-17v8,2,11,5,11,11v-17,30,-34,45,-53,45v-15,0,-25,-36,-25,-109r0,-76v-9,-2,-23,10,-43,19v-21,-20,11,-25,43,-48r0,-106","w":158},"u":{"d":"0,-194v25,-28,41,-37,76,-37v15,0,25,12,31,34v-6,35,-9,67,-9,96v0,45,9,67,26,67v24,-12,39,-25,45,-39r5,-146v15,-15,35,-8,45,14r-11,171v19,-1,24,-35,40,-14r0,9v-29,44,-60,52,-76,0v-56,66,-115,33,-113,-65r3,-73r3,0v-5,-2,-2,-10,0,-14v-17,-6,-39,4,-59,5","w":254},"v":{"d":"200,-183v7,88,-21,160,-102,180v-40,10,-58,-95,-47,-160v-9,-20,-57,4,-51,-34v4,-25,16,-31,42,-31v30,0,54,20,54,59v0,51,-19,101,16,132r12,0v34,-30,50,-72,50,-129v0,-8,-8,-19,-25,-31v-1,-7,-4,-13,-3,-22r14,-14v12,0,21,7,28,22r60,-20v15,22,-9,28,-48,48","w":260},"w":{"d":"0,-191v16,-30,44,-42,76,-40v48,3,18,89,22,133v4,45,3,67,23,64v30,-5,45,-27,45,-62v0,-88,10,-132,17,-132v19,0,29,12,28,26r-6,154v0,5,5,10,14,14v49,-21,69,-72,65,-146v-19,5,-37,-42,-14,-51v17,-2,28,14,28,20v24,-2,41,-12,62,-17v4,0,6,3,6,9v0,9,-19,23,-57,42v10,93,-25,168,-115,171v-9,0,-16,-11,-22,-33v-59,64,-108,46,-113,-68r6,-84v-18,-12,-51,20,-65,0","w":372},"x":{"d":"250,-248v9,3,14,9,14,20v-24,37,-55,79,-95,124v16,31,32,53,50,65v11,0,21,-15,29,-43v10,-2,12,5,16,9v-25,97,-67,76,-123,3v-37,45,-67,67,-90,67v-23,0,-37,-23,-40,-70v5,-12,6,-11,17,-11v4,0,8,12,11,36v3,4,8,6,12,9v11,-1,32,-26,64,-73r-53,-88v-19,-5,-23,1,-42,17v-14,1,-14,-2,-20,-14v0,-25,20,-38,59,-45v33,-6,61,64,84,96v50,-64,86,-99,107,-102","w":271},"y":{"d":"70,-231v26,0,43,13,40,37r-14,132v3,21,9,31,19,31v41,-13,62,-28,62,-45r-3,-135v4,-20,40,-19,40,6r0,140v9,-4,21,-17,28,-5v2,14,-15,16,-28,28r0,50v0,92,-15,138,-45,138v-34,0,-48,-41,-48,-90v0,-19,12,-44,34,-73v-52,24,-110,24,-102,-56r12,-113r-6,-8v-20,2,-46,19,-59,3v16,-28,45,-40,70,-40xm177,0v-34,11,-27,100,-11,110v10,-19,12,-67,11,-110","w":248},"z":{"d":"191,-231v2,7,6,12,6,20v0,32,-40,83,-121,152v2,7,18,-1,25,0v9,-1,48,11,107,25v15,-1,34,-11,45,-5r0,8v-19,19,-44,28,-76,28v-56,0,-100,-31,-157,-3v-13,1,-14,-5,-20,-19v0,-3,18,-16,48,-45v43,-43,72,-84,93,-116v-51,6,-114,21,-141,-19v-2,-43,53,-11,82,-14","w":260},"{":{},"|":{},"}":{},"~":{}}});
